%YAML:1.0
bp: !!opencv-ml-ann-mlp
   layer_sizes: !!opencv-matrix
      rows: 1
      cols: 3
      dt: i
      data: [ 16, 32, 16 ]
   activation_function: SIGMOID_SYM
   f_param1: 1.
   f_param2: 1.
   min_val: -9.4999999999999996e-01
   max_val: 9.4999999999999996e-01
   min_val1: -9.7999999999999998e-01
   max_val1: 9.7999999999999998e-01
   training_params:
      train_method: BACKPROP
      dw_scale: 1.0000000000000001e-01
      moment_scale: 1.0000000000000001e-01
      term_criteria: { epsilon:9.9999997764825821e-03, iterations:1000 }
   input_scale: [ 4.1311822359545776e+00, -3.8729833462074166e+00,
       2.0655911179772888e+00, -1.2909944487358054e+00,
       2.0655911179772888e+00, -1.2909944487358054e+00,
       2.5620504608813941e+00, -2.0816659994661326e+00,
       2.1574395598823748e+00, -1.4832396974191326e+00,
       2.1574395598823748e+00, -6.7419986246324215e-01,
       2.1574395598823748e+00, -6.7419986246324215e-01,
       2.0158105227158782e+00, -1.1338934190276815e+00,
       2.1574395598823748e+00, -1.4832396974191326e+00,
       2.0158105227158782e+00, -1.1338934190276815e+00,
       2.0158105227158782e+00, -1.1338934190276815e+00,
       2.0158105227158782e+00, -1.1338934190276815e+00,
       2.5620504608813941e+00, -2.0816659994661326e+00,
       2.0655911179772888e+00, -1.2909944487358054e+00,
       2.0655911179772888e+00, -1.2909944487358054e+00,
       2.0655911179772888e+00, -1.2909944487358054e+00 ]
   output_scale: [ 5.2631578947368418e-01, 4.9999999999999994e-01,
       5.2631578947368418e-01, 4.9999999999999994e-01,
       5.2631578947368418e-01, 4.9999999999999994e-01,
       5.2631578947368418e-01, 4.9999999999999994e-01,
       5.2631578947368418e-01, 4.9999999999999994e-01,
       5.2631578947368418e-01, 4.9999999999999994e-01,
       5.2631578947368418e-01, 4.9999999999999994e-01,
       5.2631578947368418e-01, 4.9999999999999994e-01,
       5.2631578947368418e-01, 4.9999999999999994e-01,
       5.2631578947368418e-01, 4.9999999999999994e-01,
       5.2631578947368418e-01, 4.9999999999999994e-01,
       5.2631578947368418e-01, 4.9999999999999994e-01,
       5.2631578947368418e-01, 4.9999999999999994e-01,
       5.2631578947368418e-01, 4.9999999999999994e-01,
       5.2631578947368418e-01, 4.9999999999999994e-01,
       5.2631578947368418e-01, 4.9999999999999994e-01 ]
   inv_output_scale: [ 1.8999999999999999e+00, -9.4999999999999996e-01,
       1.8999999999999999e+00, -9.4999999999999996e-01,
       1.8999999999999999e+00, -9.4999999999999996e-01,
       1.8999999999999999e+00, -9.4999999999999996e-01,
       1.8999999999999999e+00, -9.4999999999999996e-01,
       1.8999999999999999e+00, -9.4999999999999996e-01,
       1.8999999999999999e+00, -9.4999999999999996e-01,
       1.8999999999999999e+00, -9.4999999999999996e-01,
       1.8999999999999999e+00, -9.4999999999999996e-01,
       1.8999999999999999e+00, -9.4999999999999996e-01,
       1.8999999999999999e+00, -9.4999999999999996e-01,
       1.8999999999999999e+00, -9.4999999999999996e-01,
       1.8999999999999999e+00, -9.4999999999999996e-01,
       1.8999999999999999e+00, -9.4999999999999996e-01,
       1.8999999999999999e+00, -9.4999999999999996e-01,
       1.8999999999999999e+00, -9.4999999999999996e-01 ]
   weights:
      - [ -6.5328973044770611e-01, 1.1258575965708505e-01,
          -8.7597204098850343e-02, 2.4359233447970782e-01,
          -5.8597900403794138e-02, 1.2943087404035725e-01,
          6.3813064913751980e-02, 3.9461355372746004e-01,
          -1.8312955080866933e-02, 3.7040100001741644e-01,
          -3.8992639125530089e-02, 4.0351264930584629e-01,
          9.2988051381193496e-02, -3.0453065953077718e-01,
          -3.5518014395071329e-01, 3.6288434587379076e-01,
          -1.0657228508056760e-01, 6.5637885330301501e-02,
          4.6586598530718261e-02, -2.6150117975442849e-01,
          -1.7771214636469726e-01, -4.8137024238437964e-02,
          1.1440210822160396e-01, 6.9733218958273804e-03,
          5.2493827058540631e-02, -9.1538373118128666e-02,
          -2.1827267778558451e-02, 6.8706636565508017e-02,
          2.4258543016574943e-01, 9.5822648583083927e-04,
          2.7079989413078814e-01, 1.5830470619601372e-01,
          -1.0421217880639416e-01, -3.3045538456341322e-01,
          2.8032878360775948e-01, 2.6093808124137552e-01,
          -2.0228278004638769e-01, 1.1474305366032718e-01,
          -7.1240347673546894e-02, -9.7520654939721271e-02,
          -2.2604982940223070e-01, -2.7026321305550138e-01,
          -5.6532018507634585e-01, -3.3394586355841643e-01,
          1.8850173930524361e-01, -2.1183307211287897e-01,
          1.3833818948108453e-01, -5.1067714867574410e-01,
          -3.9817739368975780e-01, 1.6821136438314710e-01,
          -9.6480672461529998e-02, 6.1313716482627012e-01,
          -1.3439895575490360e-01, 2.4059249503134025e-02,
          4.5803134856368777e-01, 4.3525293454132107e-02,
          1.7389890770966793e-01, 2.6061577192180946e-01,
          -4.6194793687449665e-02, 1.5495315005247209e-01,
          1.7642529684316474e-01, -1.0810146352605551e-01,
          -1.1332894331158345e-01, 2.3416358209558966e-01,
          -9.5200340557219820e-02, -4.4478179462462647e-01,
          2.3867357817256143e-01, 1.8277024480306520e-01,
          -2.5658011336554382e-01, 1.0278343619042195e-01,
          -5.4922724720166398e-02, 3.6354924380913971e-02,
          -1.1051415381491707e-01, -2.4628024978052723e-01,
          -4.7977178641985258e-01, -3.5826301250616804e-01,
          1.1863818967963589e-01, -2.0583037396404155e-01,
          7.9183240486233167e-02, -5.6106025808383742e-01,
          -4.1062609930062854e-01, 2.2165649089977491e-01,
          3.3344182333357827e-02, 6.3462231254170676e-01,
          -1.5156327955534091e-01, 1.2499486600270523e-01,
          4.6853142242582224e-01, 4.0112081029420200e-03,
          1.2635674313752579e-01, 1.3854781768392690e-01,
          -1.4323364114745180e-01, 2.7165247344780435e-01,
          1.1011631262015459e-01, -3.4833388621600819e-01,
          -9.6567006806189779e-02, 2.4347877872346443e-01,
          -8.9116574211391564e-01, 1.7902217065698445e-01,
          3.0541473013469111e-01, -9.3440226092511000e-02,
          -2.7390095549239490e-01, -1.3362412824694869e-01,
          -1.0536709175174419e-01, -7.8955135246196045e-02,
          -3.6076834832505755e-01, 2.5908138365940431e-01,
          2.9797484483345051e-02, -2.3289509495032060e-02,
          4.9484193342448002e-01, -4.4949642999341594e-02,
          -3.6127015245411559e-01, 4.7667257179002354e-01,
          -3.1360743702740258e-02, 1.8602424694031092e-01,
          5.6276403106048312e-01, 2.0385890403459533e-01,
          2.5253069748615736e-01, -3.9968309000583256e-02,
          -3.3499273222542668e-02, -2.3502362536033219e-01,
          3.7127482226054959e-01, 1.1626703543883056e-01,
          -5.0955051206195041e-02, 1.3883198868917285e-01,
          4.0592005136833864e-01, -1.3777852239365507e-01,
          8.1787797156091899e-02, 1.3542815553978627e-01,
          -2.8523410598646526e-01, 7.7056893973585880e-02,
          5.5958391981373416e-02, -1.5215824241861520e-01,
          1.6632369283669113e-01, 1.9421366284322142e-01,
          3.8510182296303430e-01, -6.6399798691675907e-02,
          2.3476243800202759e-01, -9.5338577564082566e-02,
          -1.5630760448450859e-01, -1.8183057786555626e-01,
          -1.9409841027305419e-01, 2.1472440689298669e-02,
          -2.6145550992559452e-01, 2.1802059499756006e-02,
          -3.9748580711356930e-02, -1.5643046487998863e-01,
          5.0781142640340304e-01, -3.9156953451981275e-01,
          -1.0581910463683575e-01, 1.3172165786317877e-01,
          -1.1641000023592888e-02, 2.4606049058509155e-01,
          -3.4480269294143256e-01, -5.1592610356882962e-01,
          4.9317845285709046e-02, 1.5592218046586592e-01,
          -4.4764154748537471e-01, -4.4804493125319153e-03,
          -7.0548813435320715e-03, -3.6716947870881428e-01,
          -2.3407553840733734e-02, 4.8491167003846058e-01,
          -5.3100861216017470e-01, 2.6335685865357877e-01,
          1.3701801207163064e-01, -1.4096408295523047e-01,
          -1.6665557116095850e-01, 1.3189367631748658e-01,
          -1.2590922852720676e-01, -1.4166275908751923e-02,
          1.9101362415612066e-01, -3.3843174499736639e-01,
          -2.9282882889267448e-01, -1.3642516544085045e-01,
          -5.5419076465349859e-01, -3.2034748701443502e-02,
          -2.9581686521900574e-02, 6.0293664169292965e-02,
          -2.7571480314691305e-01, 1.0754257263286801e-01,
          3.6710046627369014e-01, -1.0675727338643930e-01,
          -4.8092557215084225e-01, -1.4200058998362258e-01,
          4.8654931980868110e-01, 2.4139774272071393e-01,
          -2.5374931632294911e-02, -1.5200308476307772e-01,
          1.9233265300136740e-01, 3.0697092698352435e-01,
          1.0937628107692828e-01, 1.3798109442227854e-01,
          9.3573298288499168e-02, 1.5660435746158582e-01,
          -3.1414616109632854e-01, -6.4748488557702474e-02,
          -2.3048189352956203e-01, -1.4815742669509274e-02,
          -1.7228023553935126e-01, -1.1433130698499022e-01,
          -3.8619106351709431e-01, -1.0681319856721168e-01,
          3.5199265711614069e-01, 2.5621872970382975e-01,
          -1.4618347309981919e-01, -9.6023496881411069e-02,
          1.4052859606775198e-01, -9.9541087202728334e-02,
          -1.3414282705447680e-01, 1.2441415972046369e-01,
          -6.0324146581073324e-02, 2.6567134102589962e-01,
          1.7440952177419586e-01, -8.2896475641692141e-02,
          -1.7813457846487057e-01, -2.4438192667923359e-01,
          1.8279932624258188e-01, 3.3391292073070650e-01,
          1.8705581331364804e-01, -3.1619380019288984e-01,
          4.9346497359113328e-01, 2.9341637747586639e-02,
          1.4860401131713388e-01, 2.1705346343392426e-01,
          -5.3498772791083149e-01, 2.3084439175182739e-01,
          -1.8735959479021835e-01, -1.0112382164058994e-01,
          4.2526962142620778e-01, 1.9350511799708059e-01,
          -1.9709012031579595e-01, -2.6123336936755853e-01,
          1.3538056403033988e-01, 3.8549971723652737e-01,
          2.8799084071133114e-03, -1.9437458304114771e-01,
          5.8568696360438566e-01, 4.0004708955838499e-02,
          2.6829182026137433e-01, -1.2320156454829435e-01,
          5.3005069617412959e-01, -9.8797949397458590e-02,
          9.7439760733328655e-03, 1.7706316904518421e-01,
          3.1737968530709948e-01, -4.2367794302043921e-01,
          -4.5701073975718223e-02, 4.0850914102115954e-01,
          1.7987815624859840e-01, -6.6466970455519664e-02,
          2.5829853749491838e-01, 5.4714558317237527e-01,
          -2.5688478658556818e-01, -1.6667003697879026e-01,
          5.8089165134678787e-02, -4.2111610792903814e-01,
          -7.8773061073326700e-01, 4.9198622652651722e-02,
          6.8839949483823961e-03, 3.7289996374709068e-02,
          2.9417465600605991e-01, 2.9011541656187845e-01,
          -3.8380548975971158e-02, 2.5241948144629373e-01,
          5.7868303818657962e-01, 1.2674506873278513e-01,
          3.0716294689278278e-02, -1.3338000375742606e-01,
          -2.9185079336852099e-01, 3.1213606031719365e-01,
          -9.3744370448805334e-02, 4.3842080095448221e-03,
          -3.0271615099700461e-01, 3.2052739144940084e-01,
          1.4609220787205787e-01, 5.4559195467703346e-02,
          -9.2111377573502767e-02, -4.1073244675684843e-02,
          2.2975682209506521e-01, -1.1705725682101206e-01,
          -4.9004189081184771e-02, -1.1777102159885224e-01,
          1.8936384834365058e-01, 4.9644072027732522e-01,
          2.9041153933201287e-02, -2.1252908657038615e-02,
          -1.4623631684869479e-01, -3.0668845028527070e-01,
          4.4225049226609742e-01, 1.3580258852978960e-01,
          4.0071221588580605e-02, -3.5804347522050106e-01,
          -6.0617115739849969e-01, 2.0659992307125968e-01,
          -6.7559237165243688e-02, -5.8923605255333145e-01,
          -2.8431889882407468e-01, -2.8427316938933833e-01,
          1.4821670999110734e-01, 5.5318741759491008e-01,
          2.6764752448579809e-01, -2.8985461088281639e-01,
          2.3761868647747064e-01, -2.4282184466349077e-01,
          1.0162506829672942e-01, -6.6199626922530869e-02,
          2.6565938455516880e-01, 1.5286969432701686e-01,
          -8.2817089842238165e-02, 9.9572767823518141e-04,
          -1.0028593917041913e-01, -3.0011961235883960e-01,
          3.0581194831979942e-02, -1.1523382720567347e-03,
          4.5690985162150061e-02, -3.4043131382865238e-01,
          -5.3934690757128324e-03, 9.8640692195537588e-02,
          -2.1191638194009679e-01, 2.2186295225126582e-02,
          2.3495474770856120e-01, 3.9404172133017307e-01,
          -1.9988442205590523e-01, -2.0424301509170970e-01,
          -2.9477294468457427e-01, 1.4776720132489429e-01,
          -8.9060873187662634e-03, -2.0532733236350259e-01,
          -1.5296385772626650e-01, -3.9727191703793230e-01,
          -3.6590895017766909e-03, -2.1636958171336793e-01,
          2.7813614208081577e-02, -3.6041334976588502e-01,
          -4.0067881524330623e-01, -5.8345582829331777e-02,
          9.3200454229273727e-02, -7.5603170928191271e-02,
          2.8920563655234090e-04, 1.2460115727540947e-02,
          1.8268559536241630e-01, 4.3894497505542529e-02,
          -4.9066726347572115e-01, -2.6834472458856773e-01,
          1.2415102766770962e-01, -5.6283738398862450e-02,
          -3.4668338863894282e-01, -1.8985831520224664e-01,
          -2.5414608042290854e-01, 3.5721387551402134e-01,
          -2.2181688742436487e-01, 2.6070703922437474e-02,
          -8.2163261870129078e-01, 9.2842511422295979e-02,
          -2.8475334358822757e-01, -2.2763240692707898e-03,
          2.0898192907972601e-01, 1.7640467985919450e-01,
          -3.2644422349946922e-01, 1.8131515842961497e-02,
          3.1860196276841779e-01, 1.9273353611471961e-01,
          -1.0106590504625046e-01, -1.1568619067158926e-01,
          1.5935562653617683e-01, 9.7062157303961810e-02,
          1.1108223866272363e-01, -4.1150971785699403e-02,
          1.3578720130665356e-01, 2.3862238436167652e-01,
          1.0586999493951919e-02, 4.0721175784515745e-01,
          1.2755416808394628e-02, -9.8832457025949616e-02,
          3.0319234132935252e-01, 2.8608943115840450e-02,
          2.3011038705562945e-01, 4.0994738934875402e-02,
          -5.6533486773778473e-03, 5.9247928347461931e-01,
          1.2043289136210598e-01, 2.0283577410116288e-01,
          -2.9565369203863906e-01, -2.5875278170452704e-01,
          8.5463493844832228e-01, 1.4680467896168642e-01,
          7.2415189821429249e-02, -1.0056467474170958e-01,
          -1.2716776713127961e-01, -3.3840604904195404e-01,
          1.1551226380810613e-01, 5.3085457801456237e-01,
          5.0982404883497789e-01, -7.1469089048653511e-02,
          1.5247695444711246e-01, -2.2187620289365748e-01,
          -9.4173449511776322e-02, -3.8677388725402807e-02,
          3.9984728423931520e-01, -2.4437106217959175e-02,
          -4.8675705269248359e-01, 2.5387857270149267e-01,
          2.1205483856024576e-01, 1.3503306432018858e-01,
          2.4453890546145521e-01, 3.8044327305818809e-01,
          1.6297907935842748e-01, -2.8872860545471557e-01,
          -3.2345698908811482e-01, -4.0400972020960585e-01,
          5.5245682010964758e-01, 1.5607769821422670e-02,
          -1.5483015311402440e-02, 2.7854865182786104e-01,
          1.6441791455783891e-01, -2.4867376785748935e-02,
          -3.4870618686546379e-01, -1.5577765447013484e-01,
          3.0030170756623709e-01, 4.5247959919733188e-01,
          1.5859454475241860e-01, -5.8182388371036856e-02,
          3.3371946181914935e-01, -5.5219476906247497e-02,
          -2.4734509017956291e-01, 3.1673779292376497e-01,
          3.9609287000792453e-03, -1.0962127316877331e-01,
          2.2255617978214418e-02, 2.3080998508522518e-01,
          -3.7863126250412535e-02, 8.9533626539996927e-02,
          -2.0141152139424393e-01, -8.1174252627793514e-02,
          -2.7862208555946577e-01, -2.0253616955699737e-02,
          -1.4658086325605582e-01, 2.3163187300442950e-01,
          6.7535107387344293e-02, 2.3560757020383702e-01,
          -3.1031586582125598e-01, -8.5681327783104153e-02,
          -2.0165854047820400e-01, -3.3406471418234784e-01,
          2.5160528438336988e-01, -5.7598110288849402e-01,
          2.5017526100330589e-01, 2.8020980163874309e-01,
          -3.9668676457039737e-01, -2.8977496435170647e-01,
          1.9240076740697099e-01, 3.6732107883420501e-01,
          2.2882193495729267e-01, -1.6344277435181975e-01,
          3.0625968118170188e-01, 8.6082548515529309e-02,
          -3.5442130454614773e-01, 1.7725316583704423e-01,
          -1.2032216430888512e-01, 1.0626068577867723e-02,
          1.0648219194266276e-01, 2.1516422538129568e-01,
          -2.3388817209532484e-02, -8.4856795127156368e-02,
          -7.5658910982083341e-02, -5.0289499245732353e-02,
          -4.1436930204886735e-01, -1.3794548077186483e-01,
          -1.5683416498853229e-03, 9.1884606355271695e-02,
          6.5094967879988572e-02, 3.4967679044520916e-01,
          -2.4098036703220194e-01, -1.4209947190931060e-01,
          -7.4063119393093499e-02, -2.9392147519922429e-01,
          2.5458568465556802e-01, -6.2434632234899690e-01,
          4.5499770539392337e-01, 2.6799545007062181e-01,
          5.0055505684001955e-01, -2.1429106057276128e-02,
          4.5131074306252628e-02, -2.0457401378426388e-01,
          2.0214115809699668e-01, -7.4173041632500925e-01,
          4.5029215325678974e-02, 1.3215009627623053e-01,
          1.0912464689053024e-01, -5.0872023311897864e-02,
          5.1940464828522015e-01, -3.2518382010189373e-01,
          -8.7595238369988684e-02, 6.7383582015971777e-01,
          2.6209146790486099e-01, 2.2681106777011037e-01,
          -2.2461450313326112e-01, 1.3395971461822714e-01,
          2.1951197822307908e-01, 6.9050916457775377e-02,
          3.6939362825081840e-01, 1.0400885005596243e-01,
          -2.4274603645355755e-01, -1.2844322693390581e-01,
          -1.3841829081682583e-01, -2.4129561025948762e-01,
          5.9732429175315915e-01, -1.5027897077450442e-01,
          4.6113049115660892e-01, 7.9989616053039322e-02,
          1.6019022778223552e-01, -6.2614755759634821e-02,
          8.6468184189644315e-01, 2.6183820716072509e-01,
          6.6900822151997474e-01, 4.3413453687906300e-01,
          1.9737082444326479e-01, 3.9011166497592853e-01,
          5.5681739441571718e-02, 4.3471419729400534e-01,
          2.3009748355910661e-01, 4.3214312836395757e-01,
          -2.3558629391381700e-01, 3.5268771885539112e-02,
          6.5863852642557652e-01, -4.2662568453001753e-01,
          -1.3707183239952966e-01, -2.6602785482009415e-02,
          -2.6276817180578393e-01, 5.5157660682229004e-01,
          9.5329543249260185e-01, 2.1393126355519917e-01,
          5.8975990489178655e-02, 3.8588018069185426e-01,
          -2.0789633724694681e-01, -7.1802543448978295e-02,
          9.3639057748935911e-02, -1.0848346268744475e+00,
          4.8559329267723245e-01, 1.6124783535817342e-02,
          5.2863143162648313e-02, 7.2932715700371256e-02,
          3.0348377698485546e-01, -3.1418518693097935e-01 ]
      - [ 6.1711418787225547e-01, 3.9882546756388478e-02,
          4.0365401879161927e-01, -8.3715175079035486e-01,
          -5.1264915434649816e-01, -1.9385384470795405e-01,
          -6.9194991590395405e-01, -5.3915480106735647e-01,
          -4.0489993473248992e-01, 7.2586989021263404e-01,
          5.5687022769614014e-01, -1.0311878001509862e+00,
          9.0047932791742391e-01, -2.3393651448427166e-01,
          -8.8458703848311859e-01, 6.2214125492656480e-01,
          -1.1234195860596853e-02, -4.1673502995902501e-02,
          -1.2527794289455079e+00, 1.6779632029552438e-01,
          7.5774337413728077e-01, 1.1118608944254682e+00,
          6.9235428434298052e-01, 6.5490798511483994e-01,
          1.4669118239321979e-01, 6.1140866332723010e-01,
          8.3059279277337406e-01, 8.4251838683702374e-01,
          6.2164999511390528e-01, 4.8722705447014969e-01,
          -7.2206110292927272e-01, 1.2655650029900298e-01,
          8.8679302233129320e-01, 3.6655462466618705e-01,
          7.8167714266347810e-01, 7.2551155247265053e-01,
          -1.7100089675405225e-01, -1.3053494424165462e+00,
          -5.6279473235390820e-01, -5.5414265389404693e-01,
          -4.1074357136014615e-02, 3.1884009755521292e-01,
          5.9688225436229300e-02, -8.1191904042925944e-01,
          -8.1205731551095572e-01, -1.8821573990304299e-01,
          8.3284043640480865e-01, 9.8165672197891385e-01,
          7.2378478128318946e-01, 6.8039075944991101e-01,
          -6.5062936670215143e-01, -2.9691386076596538e-01,
          -3.3032942010470945e-01, 4.0025530798582432e-01,
          -5.6562529244004811e-01, -7.2091274009451500e-01,
          -2.4391200385395073e-01, 2.4668604657534604e-01,
          7.0111080122161584e-01, 8.4880423590348630e-01,
          2.1890316786426647e-01, 1.1391668740241121e+00,
          9.3553800185791636e-01, -3.8922424826979662e-01,
          1.9808200180357194e-01, 4.1392549246535709e-01,
          -1.1053174993214179e+00, -5.9261924328564053e-01,
          2.0728729301830676e-01, 5.3441524719294897e-01,
          -9.7464707413003804e-01, 9.1482620227897149e-01,
          3.1122038695549620e-01, -5.9547980421134161e-01,
          -9.2498865706580868e-01, 1.6262119386302210e-01,
          -2.0869198919380236e-01, 6.7147346575255873e-01,
          1.7850308468780626e-01, 6.5524879033767003e-01,
          6.3880503955688350e-01, 6.6274091305597838e-01,
          -3.4386300052525520e-01, -5.3843012405835444e-01,
          7.7230106854681424e-01, 1.7513112476569268e-01,
          -1.0390530935792381e+00, 3.8934159750883629e-01,
          5.0394334998294987e-01, 1.0302973439366163e+00,
          -1.8703650760734568e-02, 3.4072701220580387e-01,
          -3.3671422009759777e-01, 6.1468135220024001e-01,
          -5.2935879444020983e-01, -9.3160784718704970e-01,
          -8.2885097583242973e-01, 8.1347104851620500e-02,
          1.7891813156761455e-01, 1.9358059649007686e-01,
          7.0467819416723487e-01, 3.4347600422528157e-02,
          -3.5479821305246673e-01, -2.2048448891696021e-01,
          -3.5464232518919758e-01, -2.5263410647851420e-01,
          5.8216049406873784e-02, -7.0040731137392731e-01,
          1.0024967727184455e+00, 1.0746823411725828e+00,
          1.5710762934238948e-01, -2.5461779090160597e-01,
          1.1008428917854471e+00, -2.4904092459321742e-01,
          5.6622774717233104e-01, -1.7274253412879725e-01,
          -1.9573163844485797e-01, 4.5896904396179460e-02,
          -3.4048696505246578e-01, -5.2853113842186328e-01,
          8.8788257763097345e-01, -1.0424425573470819e+00,
          6.1646551544441774e-01, -6.6986724840902914e-03,
          1.1425412207020154e+00, 6.3829354087111478e-01,
          -7.5191390126439872e-01, 1.8460547345007425e-01,
          5.5577832967039248e-02, -7.9284539353874606e-01,
          4.3728152162789585e-01, -8.0620874941126386e-01,
          7.0654932021179340e-01, -2.4583619716588037e-01,
          -1.0493710499969333e+00, 1.2201902133076668e-01,
          1.2179015298225344e+00, -7.7521340781695514e-01,
          -6.2531906479393273e-01, 7.3648615748205459e-01,
          1.0503535619600020e+00, -1.1219560318554320e+00,
          -3.6489343562784943e-01, -2.1734283016892944e-01,
          6.3523549859937156e-01, -3.8721460055460732e-01,
          -6.3023778169428868e-01, 6.5139622226798499e-01,
          -3.7618131675858568e-01, -1.0785598551169970e-01,
          2.5998877860225134e-02, 9.6690441042074504e-01,
          6.0307379154652219e-01, -4.3590921418562073e-01,
          -9.2777334799128031e-01, 3.8445563870314869e-01,
          3.1507900288327190e-01, 4.8357441358025349e-01,
          6.8655563799028896e-01, 3.6439300886869926e-02,
          -7.8992883671290393e-01, -1.2200846387781870e+00,
          -7.2241001418283624e-01, 5.4104661151244116e-01,
          -7.1679049591863753e-01, 1.0794523963821423e+00,
          7.3254176077948885e-01, 1.3065836256860561e-01,
          6.3730580875976772e-01, 8.8518202144949554e-01,
          -4.6932014842801678e-01, -4.0462340525800855e-01,
          8.0811357799818007e-01, 5.6625925885358377e-02,
          2.6399536812938584e-01, 6.1046672317180806e-01,
          8.7259146120528830e-01, -6.7916394997571816e-01,
          -1.0699121902593791e+00, 1.3832143100860092e-01,
          -1.9146020986715753e-01, -9.4850390697762244e-01,
          1.0395010853821622e+00, -3.6815256084018877e-01,
          -9.4258894168945312e-02, 9.7591511141835108e-01,
          -7.3541591970237929e-01, 6.6423373747374825e-01,
          -5.7978758768137917e-01, -2.2353071833451488e-01,
          -2.4483068991277768e-02, -9.5064864202595611e-01,
          3.1146922969168817e-01, -1.5618631568258579e-01,
          8.3918827647548866e-01, 1.0336732696199324e+00,
          -2.5671397967410847e-01, -2.8973577572822440e-01,
          -3.6055065861844920e-01, 1.2615907695053865e+00,
          -4.4515365373869770e-01, 6.5031502439832933e-01,
          3.3459979144933755e-01, 5.8489352773345360e-01,
          9.7055577643964086e-01, 7.7861934210059902e-01,
          -7.0822873363483640e-01, 8.0141973277259415e-02,
          -9.0614884443941213e-01, -7.9098280859407810e-01,
          -3.9791371212757154e-01, 2.2076251551963546e-02,
          8.6304511355850280e-02, -7.4317225328589254e-02,
          1.0744738015434788e-01, 3.7226304700392510e-01,
          6.2398588602654936e-01, -4.2736471647700008e-01,
          -1.0498048614268414e+00, 2.7375416540381331e-01,
          -7.9246459444472339e-01, 1.2184087348296688e-01,
          8.4429394489597842e-01, 1.1230859473711419e+00,
          -9.1413588070838137e-01, 8.1223079432418210e-01,
          -7.1607769468157501e-01, -4.9422045535473852e-01,
          -4.1269303930288054e-01, -9.6998109980238190e-01,
          7.5610487102675517e-01, 6.1845392132610955e-01,
          -6.7893518510676254e-01, 5.4411256375416650e-01,
          -7.1256857386768224e-01, 7.4080751855504745e-01,
          7.3158167020459197e-01, -7.0067647686629675e-01,
          -7.4128541908802234e-02, 6.7813134725697699e-01,
          7.0841239311972626e-01, -7.4893000684396360e-01,
          -6.6927661014967532e-01, 1.0970582611864321e+00,
          -3.7632328406564741e-01, -5.1869768957733442e-01,
          -6.3277479103127610e-01, -6.3610586501601429e-01,
          -8.7134009071662033e-01, -7.0471620370991039e-01,
          -2.0048922846514713e-01, 4.6494900675253192e-01,
          -5.3493354871651555e-01, 6.6050609362068502e-01,
          -8.9963549558187383e-01, 3.8570218454757549e-01,
          -2.0230961123675675e-01, -1.0653375061491515e+00,
          -5.5926548809532728e-01, -1.3917155302233108e-01,
          -3.3793010183266464e-01, -4.7085623660132936e-01,
          -4.2867221887233903e-01, 7.8250524492317330e-01,
          -7.8768695521468246e-01, 5.6572383380738034e-01,
          6.7351327148116213e-01, 7.3802242661719186e-01,
          -8.3440509382833139e-01, -9.6890105607926702e-01,
          3.4263588332355288e-01, -1.7804352776018367e-01,
          3.1602284467149250e-01, 7.9429970451469190e-01,
          -6.6902637769779116e-02, 8.9058214214577835e-01,
          -5.0190327614925589e-01, -2.1544283391512928e-01,
          8.4880221914643750e-01, -4.8573365575414940e-01,
          8.1046464423925513e-01, -6.0477838789245605e-02,
          4.3746134412812776e-01, 5.1378833510734689e-01,
          8.3914511682071025e-01, 5.5463035031930424e-02,
          4.8631805718430232e-02, -1.1992841777618227e-01,
          5.8567415719380644e-01, 7.2173605075555591e-01,
          -2.5729805508157899e-01, 1.1680959477377229e+00,
          1.1986967143838438e+00, -4.9293013820132292e-01,
          3.9836486853893860e-01, 5.6146542297637925e-01,
          6.4310323850389339e-01, 8.3059800732008293e-01,
          -4.4844447175477774e-02, 2.4198978296736059e-01,
          -8.1946537969752375e-02, -9.3903724885637541e-01,
          -2.8002959104843061e-01, 4.3656624472164024e-01,
          -1.4615479612855681e-01, 4.2274540559237456e-01,
          1.2261326293861627e+00, 1.1524232630484567e-01,
          -5.8346773063615442e-01, 4.5912547285367317e-01,
          5.9765021671211638e-01, 6.4167790477278164e-01,
          2.1464213489753822e-01, 2.5089231743044682e-01,
          3.9334160131388657e-01, 8.8752018813408118e-01,
          5.0508573006276292e-01, -2.8081291237568784e-01,
          5.5984788044503346e-02, 6.5470596992041019e-01,
          -6.0582600477144011e-01, 7.1861452933096914e-01,
          -6.3992665929166526e-01, 4.2013731920989578e-01,
          -3.1837204807138220e-01, 4.9623855316893956e-01,
          9.8160418212785339e-01, 5.9093849166677148e-01,
          -1.0226508756223156e-01, -4.5992147459187477e-01,
          3.8074510689244656e-01, -3.0704329019254933e-01,
          8.0183896982206582e-01, -5.0353937146607998e-02,
          -1.2580959976609410e-01, 5.3575140392093412e-01,
          -5.0676686776543567e-01, 2.6713512232070336e-01,
          -4.0261962394934278e-02, 5.0937057222630193e-02,
          4.2733988135600248e-01, 3.5715286137765251e-01,
          -7.9773066527871583e-01, -6.8017117640663805e-01,
          -4.3194013029052492e-01, 7.2351105432360474e-01,
          -9.7787732678087436e-01, -4.3666788867835987e-01,
          8.8812006566640556e-01, 8.5575460462517378e-02,
          9.6411106244517553e-01, -1.2105684190546065e-01,
          -1.3409220968658306e-01, 4.7207303893287789e-01,
          4.2351525728698941e-01, 2.3604056070544513e-01,
          -6.5576687761010632e-01, -9.7373137396976339e-01,
          -7.7733044917465244e-01, -5.8989051584359276e-01,
          3.2606918843342353e-01, -1.6742988311628262e-01,
          -1.0776532297562891e+00, 8.8394982223197049e-01,
          2.8198168803690105e-01, 6.2684067964251533e-01,
          -7.2403180758669861e-01, -9.2955343152802261e-01,
          4.6897334535034069e-01, -7.8902085614061113e-01,
          1.0006782011970667e+00, -1.0968437670924489e+00,
          8.3487707008736778e-01, -1.7709844121151011e-01,
          -7.6442720534796815e-01, 1.0375813329810863e+00,
          3.0768185065223803e-03, -7.4215619807523858e-01,
          -4.1266380454818047e-01, 5.5813639223321367e-03,
          -2.9020437669899807e-01, 3.4174306923223924e-01,
          -2.0190121464178812e-02, -2.9795955992745871e-01,
          6.4317946381382896e-01, -1.6781466912349502e-01,
          8.5543901615058782e-01, 4.4928724476045451e-01,
          -6.9533516791810568e-01, 3.7067703183091599e-01,
          5.4848359246450251e-01, 5.8256969644023615e-01,
          -3.3702924800891348e-01, -9.5775555612530858e-02,
          5.3392533485493110e-01, 2.5188300871922492e-01,
          -4.9213135428588195e-01, -1.0204521980032080e+00,
          -7.6408166120983154e-02, 3.9683420665555563e-01,
          -7.0408473620895629e-01, -7.2703431548121200e-02,
          6.9833279742682319e-01, 1.2812511054743636e-01,
          -1.2027391466055293e+00, 6.8306141029984646e-01,
          8.0157056754204237e-01, -3.3578205719292054e-01,
          -6.2030233713911564e-01, -3.9983765809526089e-01,
          -8.3395189890578925e-01, -4.9004244110793821e-01,
          -7.4974315258277779e-01, -7.4945673842453708e-01,
          -3.1957592928913259e-01, -6.7196413313295011e-01,
          7.7288180047024468e-01, -2.6491313762154722e-01,
          -1.7682698753204160e-01, -5.8265218172853972e-01,
          1.1814444874321568e+00, -1.5001608378649173e-01,
          4.6211423432934262e-01, 7.9657018599807605e-01,
          -4.8101865074026562e-01, 1.0866054754046327e-01,
          -7.7567673291759920e-01, 9.0396937658422905e-01,
          2.0068367752044400e-01, -4.5374797109051068e-01,
          -5.6198508376249823e-01, 1.1148895242532402e+00,
          -2.2515851946764931e-01, 1.0754077810816934e-01,
          5.6819072077591137e-01, 5.6815864861026177e-01,
          2.0797114657422675e-01, -3.1609295926978775e-01,
          -4.7975574246236624e-01, 9.5813217123644023e-01,
          6.1079703419920583e-01, -8.1263791149567577e-01,
          -6.5281414780730762e-01, 1.2309424865857495e+00,
          5.8428027494973434e-01, -2.0626365171392960e-01,
          -9.1196734901265819e-01, -5.7439037904740076e-01,
          5.3936407914727014e-01, 2.4380892906221310e-01,
          -2.4847322041098158e-01, 7.9180269554418525e-01,
          -1.0656129376156156e+00, 6.5308755115531347e-01,
          1.0798061848439351e+00, -5.2301849721094595e-01,
          4.1066130993953565e-01, 3.8615500527413937e-01,
          -1.0091801953538271e+00, -7.2775775830016498e-01,
          1.5161296652507983e-01, 9.0265233965482083e-01,
          5.3713970945560030e-01, 6.1649006129036155e-01,
          5.1093418898681286e-01, -9.3843500741115837e-01,
          4.4978367027960658e-01, -4.0456469740081386e-01,
          -2.0044779369316384e-01, 6.4199634643571024e-01,
          -9.5110920373148622e-01, -1.0007636743993253e+00,
          -7.7337373656100050e-01, 5.1167363712913894e-01,
          1.0636011939236638e+00, 8.1368417243469193e-01,
          8.5150910143354208e-01, -6.9620058737264556e-01,
          -1.1438022081137438e+00, 9.2454950673166433e-02,
          1.0142632789678716e+00, -9.0592923460795927e-01,
          9.6370709705722191e-01, -2.5843856679393146e-01,
          1.7606847537854489e-01, 1.4749846386587279e-01,
          2.5899751091729722e-01, 4.3849283570019976e-01,
          -5.7387305224501783e-01, -8.7751393259249322e-01,
          -7.1664695764059971e-01, -6.7513665357034824e-01,
          2.7303158134696642e-01, -3.1054837431848775e-01,
          7.3844404697819754e-01, 5.1221437995302010e-01,
          1.3967039358707614e-01, 6.5174680848387412e-01,
          1.3308462666344495e-01, 3.4437997694860628e-01,
          -6.6576609292916711e-01, 2.7923744448908344e-01,
          1.3647805644439798e-01, -6.2058925829730593e-01,
          -1.1837326627162499e+00, -9.4737459013827713e-02,
          -9.8921693590920245e-01, -7.8834411259550663e-01,
          1.8929304415852014e-01, 1.1688933463773548e+00,
          -7.0762100024701291e-01, -2.1957873134831907e-01,
          5.9179402762508471e-01, 2.8489797318292740e-02,
          5.1632899526616238e-01, 1.2915863626707556e+00,
          2.1116205008489989e-02, -5.2630586136874324e-01,
          -4.0406272454251463e-01, -4.7523381298336287e-01,
          5.6533659201427600e-01, -2.5026137242857849e-01,
          -2.1659590897108572e-01, -4.2461479580766531e-01,
          4.4454533176578587e-01, 6.5168553082066316e-01,
          7.0070715201633516e-01, 1.1483653878755129e-02 ]
